digraph Tree {
node [shape=box] ;
0 [label="X[22] <= 0.5\nmse = 812398496.788\nsamples = 100\nvalue = 73818.25"] ;
1 [label="X[25] <= 0.5\nmse = 270649123.338\nsamples = 63\nvalue = 54402.206"] ;
0 -> 1 [labeldistance=2.5, labelangle=45, headlabel="True"] ;
2 [label="X[24] <= 0.5\nmse = 152841240.738\nsamples = 45\nvalue = 48036.8"] ;
1 -> 2 ;
3 [label="X[23] <= 0.5\nmse = 157237883.176\nsamples = 22\nvalue = 52948.227"] ;
2 -> 3 ;
4 [label="X[30] <= 0.5\nmse = 17380412.75\nsamples = 8\nvalue = 63915.0"] ;
3 -> 4 ;
5 [label="X[3] <= 0.5\nmse = 1972010.4\nsamples = 5\nvalue = 60970.0"] ;
4 -> 5 ;
6 [label="X[6] <= 0.5\nmse = 213444.0\nsamples = 2\nvalue = 59289.0"] ;
5 -> 6 ;
7 [label="mse = 0.0\nsamples = 1\nvalue = 58827.0"] ;
6 -> 7 ;
8 [label="mse = 0.0\nsamples = 1\nvalue = 59751.0"] ;
6 -> 8 ;
9 [label="X[7] <= 0.5\nmse = 4653.556\nsamples = 3\nvalue = 62090.667"] ;
5 -> 9 ;
10 [label="mse = 0.0\nsamples = 1\nvalue = 62185.0"] ;
9 -> 10 ;
11 [label="X[5] <= 0.5\nmse = 306.25\nsamples = 2\nvalue = 62043.5"] ;
9 -> 11 ;
12 [label="mse = 0.0\nsamples = 1\nvalue = 62061.0"] ;
11 -> 12 ;
13 [label="mse = 0.0\nsamples = 1\nvalue = 62026.0"] ;
11 -> 13 ;
14 [label="X[18] <= 0.5\nmse = 4514305.556\nsamples = 3\nvalue = 68823.333"] ;
4 -> 14 ;
15 [label="X[21] <= 0.5\nmse = 926406.25\nsamples = 2\nvalue = 67427.5"] ;
14 -> 15 ;
16 [label="mse = 0.0\nsamples = 1\nvalue = 66465.0"] ;
15 -> 16 ;
17 [label="mse = 0.0\nsamples = 1\nvalue = 68390.0"] ;
15 -> 17 ;
18 [label="mse = 0.0\nsamples = 1\nvalue = 71615.0"] ;
14 -> 18 ;
19 [label="X[5] <= 0.5\nmse = 129158793.25\nsamples = 14\nvalue = 46681.5"] ;
3 -> 19 ;
20 [label="X[16] <= 0.5\nmse = 48155560.408\nsamples = 7\nvalue = 55767.143"] ;
19 -> 20 ;
21 [label="X[10] <= 0.5\nmse = 11830766.688\nsamples = 4\nvalue = 50767.75"] ;
20 -> 21 ;
22 [label="X[26] <= 0.5\nmse = 1050507.556\nsamples = 3\nvalue = 52686.333"] ;
21 -> 22 ;
23 [label="X[0] <= 0.5\nmse = 30625.0\nsamples = 2\nvalue = 53404.0"] ;
22 -> 23 ;
24 [label="mse = 0.0\nsamples = 1\nvalue = 53579.0"] ;
23 -> 24 ;
25 [label="mse = 0.0\nsamples = 1\nvalue = 53229.0"] ;
23 -> 25 ;
26 [label="mse = 0.0\nsamples = 1\nvalue = 51251.0"] ;
22 -> 26 ;
27 [label="mse = 0.0\nsamples = 1\nvalue = 45012.0"] ;
21 -> 27 ;
28 [label="X[0] <= 0.5\nmse = 18829728.667\nsamples = 3\nvalue = 62433.0"] ;
20 -> 28 ;
29 [label="mse = 0.0\nsamples = 1\nvalue = 67922.0"] ;
28 -> 29 ;
30 [label="X[6] <= 0.5\nmse = 5647752.25\nsamples = 2\nvalue = 59688.5"] ;
28 -> 30 ;
31 [label="mse = 0.0\nsamples = 1\nvalue = 62065.0"] ;
30 -> 31 ;
32 [label="mse = 0.0\nsamples = 1\nvalue = 57312.0"] ;
30 -> 32 ;
33 [label="X[11] <= 0.5\nmse = 45064213.837\nsamples = 7\nvalue = 37595.857"] ;
19 -> 33 ;
34 [label="X[14] <= 0.5\nmse = 7402922.188\nsamples = 4\nvalue = 42333.25"] ;
33 -> 34 ;
35 [label="X[1] <= 0.5\nmse = 76792.667\nsamples = 3\nvalue = 43898.0"] ;
34 -> 35 ;
36 [label="X[2] <= 0.5\nmse = 2862.25\nsamples = 2\nvalue = 44091.5"] ;
35 -> 36 ;
37 [label="mse = 0.0\nsamples = 1\nvalue = 44038.0"] ;
36 -> 37 ;
38 [label="mse = 0.0\nsamples = 1\nvalue = 44145.0"] ;
36 -> 38 ;
39 [label="mse = 0.0\nsamples = 1\nvalue = 43511.0"] ;
35 -> 39 ;
40 [label="mse = 0.0\nsamples = 1\nvalue = 37639.0"] ;
34 -> 40 ;
41 [label="X[7] <= 0.5\nmse = 25456941.556\nsamples = 3\nvalue = 31279.333"] ;
33 -> 41 ;
42 [label="X[29] <= 0.5\nmse = 4855412.25\nsamples = 2\nvalue = 34612.5"] ;
41 -> 42 ;
43 [label="mse = 0.0\nsamples = 1\nvalue = 36816.0"] ;
42 -> 43 ;
44 [label="mse = 0.0\nsamples = 1\nvalue = 32409.0"] ;
42 -> 44 ;
45 [label="mse = 0.0\nsamples = 1\nvalue = 24613.0"] ;
41 -> 45 ;
46 [label="X[5] <= 0.5\nmse = 103492284.688\nsamples = 23\nvalue = 43338.913"] ;
2 -> 46 ;
47 [label="X[7] <= 0.5\nmse = 48193598.284\nsamples = 13\nvalue = 50300.846"] ;
46 -> 47 ;
48 [label="X[11] <= 0.5\nmse = 6993952.694\nsamples = 7\nvalue = 56257.857"] ;
47 -> 48 ;
49 [label="X[4] <= 0.5\nmse = 1295498.56\nsamples = 5\nvalue = 57753.8"] ;
48 -> 49 ;
50 [label="X[8] <= 0.5\nmse = 132896.0\nsamples = 3\nvalue = 58637.0"] ;
49 -> 50 ;
51 [label="X[3] <= 0.5\nmse = 20736.0\nsamples = 2\nvalue = 58393.0"] ;
50 -> 51 ;
52 [label="mse = 0.0\nsamples = 1\nvalue = 58537.0"] ;
51 -> 52 ;
53 [label="mse = 0.0\nsamples = 1\nvalue = 58249.0"] ;
51 -> 53 ;
54 [label="mse = 0.0\nsamples = 1\nvalue = 59125.0"] ;
50 -> 54 ;
55 [label="X[18] <= 0.5\nmse = 114244.0\nsamples = 2\nvalue = 56429.0"] ;
49 -> 55 ;
56 [label="mse = 0.0\nsamples = 1\nvalue = 56091.0"] ;
55 -> 56 ;
57 [label="mse = 0.0\nsamples = 1\nvalue = 56767.0"] ;
55 -> 57 ;
58 [label="X[8] <= 0.5\nmse = 1658944.0\nsamples = 2\nvalue = 52518.0"] ;
48 -> 58 ;
59 [label="mse = 0.0\nsamples = 1\nvalue = 51230.0"] ;
58 -> 59 ;
60 [label="mse = 0.0\nsamples = 1\nvalue = 53806.0"] ;
58 -> 60 ;
61 [label="X[11] <= 0.5\nmse = 6559180.0\nsamples = 6\nvalue = 43351.0"] ;
47 -> 61 ;
62 [label="mse = 0.0\nsamples = 1\nvalue = 48951.0"] ;
61 -> 62 ;
63 [label="X[9] <= 0.5\nmse = 344616.0\nsamples = 5\nvalue = 42231.0"] ;
61 -> 63 ;
64 [label="X[3] <= 0.5\nmse = 172640.25\nsamples = 2\nvalue = 42836.5"] ;
63 -> 64 ;
65 [label="mse = 0.0\nsamples = 1\nvalue = 43252.0"] ;
64 -> 65 ;
66 [label="mse = 0.0\nsamples = 1\nvalue = 42421.0"] ;
64 -> 66 ;
67 [label="X[18] <= 0.5\nmse = 51899.556\nsamples = 3\nvalue = 41827.333"] ;
63 -> 67 ;
68 [label="mse = 0.0\nsamples = 1\nvalue = 42108.0"] ;
67 -> 68 ;
69 [label="X[1] <= 0.5\nmse = 18769.0\nsamples = 2\nvalue = 41687.0"] ;
67 -> 69 ;
70 [label="mse = 0.0\nsamples = 1\nvalue = 41550.0"] ;
69 -> 70 ;
71 [label="mse = 0.0\nsamples = 1\nvalue = 41824.0"] ;
69 -> 71 ;
72 [label="X[14] <= 0.5\nmse = 30459724.24\nsamples = 10\nvalue = 34288.4"] ;
46 -> 72 ;
73 [label="X[3] <= 0.5\nmse = 6888850.204\nsamples = 7\nvalue = 31053.286"] ;
72 -> 73 ;
74 [label="X[29] <= 0.5\nmse = 5593004.667\nsamples = 3\nvalue = 28796.0"] ;
73 -> 74 ;
75 [label="X[10] <= 0.5\nmse = 57840.25\nsamples = 2\nvalue = 30462.5"] ;
74 -> 75 ;
76 [label="mse = 0.0\nsamples = 1\nvalue = 30703.0"] ;
75 -> 76 ;
77 [label="mse = 0.0\nsamples = 1\nvalue = 30222.0"] ;
75 -> 77 ;
78 [label="mse = 0.0\nsamples = 1\nvalue = 25463.0"] ;
74 -> 78 ;
79 [label="X[8] <= 0.5\nmse = 1173102.188\nsamples = 4\nvalue = 32746.25"] ;
73 -> 79 ;
80 [label="X[18] <= 0.5\nmse = 229441.0\nsamples = 2\nvalue = 33775.0"] ;
79 -> 80 ;
81 [label="mse = 0.0\nsamples = 1\nvalue = 33296.0"] ;
80 -> 81 ;
82 [label="mse = 0.0\nsamples = 1\nvalue = 34254.0"] ;
80 -> 82 ;
83 [label="X[2] <= 0.5\nmse = 110.25\nsamples = 2\nvalue = 31717.5"] ;
79 -> 83 ;
84 [label="mse = 0.0\nsamples = 1\nvalue = 31728.0"] ;
83 -> 84 ;
85 [label="mse = 0.0\nsamples = 1\nvalue = 31707.0"] ;
83 -> 85 ;
86 [label="X[17] <= 0.5\nmse = 4056484.667\nsamples = 3\nvalue = 41837.0"] ;
72 -> 86 ;
87 [label="mse = 0.0\nsamples = 1\nvalue = 44543.0"] ;
86 -> 87 ;
88 [label="X[9] <= 0.5\nmse = 592900.0\nsamples = 2\nvalue = 40484.0"] ;
86 -> 88 ;
89 [label="mse = 0.0\nsamples = 1\nvalue = 39714.0"] ;
88 -> 89 ;
90 [label="mse = 0.0\nsamples = 1\nvalue = 41254.0"] ;
88 -> 90 ;
91 [label="X[11] <= 0.5\nmse = 210632847.423\nsamples = 18\nvalue = 70315.722"] ;
1 -> 91 ;
92 [label="X[5] <= 0.5\nmse = 131697333.506\nsamples = 9\nvalue = 80575.222"] ;
91 -> 92 ;
93 [label="X[18] <= 0.5\nmse = 5884212.688\nsamples = 4\nvalue = 92491.75"] ;
92 -> 93 ;
94 [label="X[6] <= 0.5\nmse = 1514130.25\nsamples = 2\nvalue = 90437.5"] ;
93 -> 94 ;
95 [label="mse = 0.0\nsamples = 1\nvalue = 91668.0"] ;
94 -> 95 ;
96 [label="mse = 0.0\nsamples = 1\nvalue = 89207.0"] ;
94 -> 96 ;
97 [label="X[14] <= 0.5\nmse = 1814409.0\nsamples = 2\nvalue = 94546.0"] ;
93 -> 97 ;
98 [label="mse = 0.0\nsamples = 1\nvalue = 93199.0"] ;
97 -> 98 ;
99 [label="mse = 0.0\nsamples = 1\nvalue = 95893.0"] ;
97 -> 99 ;
100 [label="X[10] <= 0.5\nmse = 27862596.8\nsamples = 5\nvalue = 71042.0"] ;
92 -> 100 ;
101 [label="X[4] <= 0.5\nmse = 5775694.75\nsamples = 4\nvalue = 73452.5"] ;
100 -> 101 ;
102 [label="X[29] <= 0.5\nmse = 365856.889\nsamples = 3\nvalue = 72098.333"] ;
101 -> 102 ;
103 [label="X[20] <= 0.5\nmse = 13689.0\nsamples = 2\nvalue = 71676.0"] ;
102 -> 103 ;
104 [label="mse = 0.0\nsamples = 1\nvalue = 71793.0"] ;
103 -> 104 ;
105 [label="mse = 0.0\nsamples = 1\nvalue = 71559.0"] ;
103 -> 105 ;
106 [label="mse = 0.0\nsamples = 1\nvalue = 72943.0"] ;
102 -> 106 ;
107 [label="mse = 0.0\nsamples = 1\nvalue = 77515.0"] ;
101 -> 107 ;
108 [label="mse = 0.0\nsamples = 1\nvalue = 61400.0"] ;
100 -> 108 ;
109 [label="X[5] <= 0.5\nmse = 79053680.84\nsamples = 9\nvalue = 60056.222"] ;
91 -> 109 ;
110 [label="X[27] <= 0.5\nmse = 30818012.667\nsamples = 6\nvalue = 65233.0"] ;
109 -> 110 ;
111 [label="X[26] <= 0.5\nmse = 4842931.04\nsamples = 5\nvalue = 62918.6"] ;
110 -> 111 ;
112 [label="X[29] <= 0.5\nmse = 2951701.188\nsamples = 4\nvalue = 63706.25"] ;
111 -> 112 ;
113 [label="X[1] <= 0.5\nmse = 893484.222\nsamples = 3\nvalue = 64578.333"] ;
112 -> 113 ;
114 [label="mse = 0.0\nsamples = 1\nvalue = 65724.0"] ;
113 -> 114 ;
115 [label="X[0] <= 0.5\nmse = 355812.25\nsamples = 2\nvalue = 64005.5"] ;
113 -> 115 ;
116 [label="mse = 0.0\nsamples = 1\nvalue = 64602.0"] ;
115 -> 116 ;
117 [label="mse = 0.0\nsamples = 1\nvalue = 63409.0"] ;
115 -> 117 ;
118 [label="mse = 0.0\nsamples = 1\nvalue = 61090.0"] ;
112 -> 118 ;
119 [label="mse = 0.0\nsamples = 1\nvalue = 59768.0"] ;
111 -> 119 ;
120 [label="mse = 0.0\nsamples = 1\nvalue = 76805.0"] ;
110 -> 120 ;
121 [label="X[20] <= 0.5\nmse = 14730848.222\nsamples = 3\nvalue = 49702.667"] ;
109 -> 121 ;
122 [label="mse = 0.0\nsamples = 1\nvalue = 44333.0"] ;
121 -> 122 ;
123 [label="X[3] <= 0.5\nmse = 471282.25\nsamples = 2\nvalue = 52387.5"] ;
121 -> 123 ;
124 [label="mse = 0.0\nsamples = 1\nvalue = 53074.0"] ;
123 -> 124 ;
125 [label="mse = 0.0\nsamples = 1\nvalue = 51701.0"] ;
123 -> 125 ;
126 [label="mse = 0.0\nsamples = 37\nvalue = 106878.0"] ;
0 -> 126 [labeldistance=2.5, labelangle=-45, headlabel="False"] ;
}
